digraph Tree {
node [shape=box] ;
0 [label="Income <= 113.5\nmse = 0.087\nsamples = 5000\nvalue = 0.096"] ;
1 [label="CCAvg <= 2.95\nmse = 0.02\nsamples = 4021\nvalue = 0.021"] ;
0 -> 1 [labeldistance=2.5, labelangle=45, headlabel="True"] ;
2 [label="Income <= 106.5\nmse = 0.003\nsamples = 3723\nvalue = 0.003"] ;
1 -> 2 ;
3 [label="mse = 0.0\nsamples = 3629\nvalue = 0.0"] ;
2 -> 3 ;
4 [label="Family <= 3.5\nmse = 0.119\nsamples = 94\nvalue = 0.138"] ;
2 -> 4 ;
5 [label="Education <= 1.5\nmse = 0.078\nsamples = 70\nvalue = 0.086"] ;
4 -> 5 ;
6 [label="mse = 0.0\nsamples = 41\nvalue = 0.0"] ;
5 -> 6 ;
7 [label="CCAvg <= 1.65\nmse = 0.164\nsamples = 29\nvalue = 0.207"] ;
5 -> 7 ;
8 [label="Family <= 1.5\nmse = 0.215\nsamples = 16\nvalue = 0.312"] ;
7 -> 8 ;
9 [label="CCAvg <= 1.05\nmse = 0.099\nsamples = 9\nvalue = 0.111"] ;
8 -> 9 ;
10 [label="mse = 0.0\nsamples = 7\nvalue = 0.0"] ;
9 -> 10 ;
11 [label="Education <= 2.5\nmse = 0.25\nsamples = 2\nvalue = 0.5"] ;
9 -> 11 ;
12 [label="mse = 0.0\nsamples = 1\nvalue = 1.0"] ;
11 -> 12 ;
13 [label="mse = 0.0\nsamples = 1\nvalue = 0.0"] ;
11 -> 13 ;
14 [label="CCAvg <= 1.0\nmse = 0.245\nsamples = 7\nvalue = 0.571"] ;
8 -> 14 ;
15 [label="mse = 0.0\nsamples = 2\nvalue = 1.0"] ;
14 -> 15 ;
16 [label="Income <= 110.5\nmse = 0.24\nsamples = 5\nvalue = 0.4"] ;
14 -> 16 ;
17 [label="mse = 0.0\nsamples = 2\nvalue = 0.0"] ;
16 -> 17 ;
18 [label="Mortgage <= 125.5\nmse = 0.222\nsamples = 3\nvalue = 0.667"] ;
16 -> 18 ;
19 [label="Income <= 111.5\nmse = 0.25\nsamples = 2\nvalue = 0.5"] ;
18 -> 19 ;
20 [label="mse = 0.0\nsamples = 1\nvalue = 0.0"] ;
19 -> 20 ;
21 [label="mse = 0.0\nsamples = 1\nvalue = 1.0"] ;
19 -> 21 ;
22 [label="mse = 0.0\nsamples = 1\nvalue = 1.0"] ;
18 -> 22 ;
23 [label="Education <= 2.5\nmse = 0.071\nsamples = 13\nvalue = 0.077"] ;
7 -> 23 ;
24 [label="mse = 0.0\nsamples = 11\nvalue = 0.0"] ;
23 -> 24 ;
25 [label="Income <= 109.0\nmse = 0.25\nsamples = 2\nvalue = 0.5"] ;
23 -> 25 ;
26 [label="mse = 0.0\nsamples = 1\nvalue = 1.0"] ;
25 -> 26 ;
27 [label="mse = 0.0\nsamples = 1\nvalue = 0.0"] ;
25 -> 27 ;
28 [label="Education <= 1.5\nmse = 0.207\nsamples = 24\nvalue = 0.292"] ;
4 -> 28 ;
29 [label="mse = 0.0\nsamples = 3\nvalue = 1.0"] ;
28 -> 29 ;
30 [label="CCAvg <= 1.15\nmse = 0.154\nsamples = 21\nvalue = 0.19"] ;
28 -> 30 ;
31 [label="mse = 0.0\nsamples = 1\nvalue = 1.0"] ;
30 -> 31 ;
32 [label="CCAvg <= 2.45\nmse = 0.128\nsamples = 20\nvalue = 0.15"] ;
30 -> 32 ;
33 [label="Education <= 2.5\nmse = 0.094\nsamples = 19\nvalue = 0.105"] ;
32 -> 33 ;
34 [label="Income <= 112.5\nmse = 0.24\nsamples = 5\nvalue = 0.4"] ;
33 -> 34 ;
35 [label="CCAvg <= 1.85\nmse = 0.188\nsamples = 4\nvalue = 0.25"] ;
34 -> 35 ;
36 [label="mse = 0.0\nsamples = 2\nvalue = 0.0"] ;
35 -> 36 ;
37 [label="Income <= 108.5\nmse = 0.25\nsamples = 2\nvalue = 0.5"] ;
35 -> 37 ;
38 [label="mse = 0.0\nsamples = 1\nvalue = 1.0"] ;
37 -> 38 ;
39 [label="mse = 0.0\nsamples = 1\nvalue = 0.0"] ;
37 -> 39 ;
40 [label="mse = 0.0\nsamples = 1\nvalue = 1.0"] ;
34 -> 40 ;
41 [label="mse = 0.0\nsamples = 14\nvalue = 0.0"] ;
33 -> 41 ;
42 [label="mse = 0.0\nsamples = 1\nvalue = 1.0"] ;
32 -> 42 ;
43 [label="CD Account <= 0.5\nmse = 0.181\nsamples = 298\nvalue = 0.238"] ;
1 -> 43 ;
44 [label="Income <= 92.5\nmse = 0.152\nsamples = 272\nvalue = 0.188"] ;
43 -> 44 ;
45 [label="CCAvg <= 3.65\nmse = 0.088\nsamples = 174\nvalue = 0.098"] ;
44 -> 45 ;
46 [label="Income <= 82.5\nmse = 0.134\nsamples = 88\nvalue = 0.159"] ;
45 -> 46 ;
47 [label="Mortgage <= 216.5\nmse = 0.086\nsamples = 63\nvalue = 0.095"] ;
46 -> 47 ;
48 [label="Education <= 2.5\nmse = 0.062\nsamples = 60\nvalue = 0.067"] ;
47 -> 48 ;
49 [label="Mortgage <= 124.5\nmse = 0.09\nsamples = 40\nvalue = 0.1"] ;
48 -> 49 ;
50 [label="Income <= 68.5\nmse = 0.075\nsamples = 37\nvalue = 0.081"] ;
49 -> 50 ;
51 [label="mse = 0.0\nsamples = 15\nvalue = 0.0"] ;
50 -> 51 ;
52 [label="Income <= 70.0\nmse = 0.118\nsamples = 22\nvalue = 0.136"] ;
50 -> 52 ;
53 [label="mse = 0.0\nsamples = 1\nvalue = 1.0"] ;
52 -> 53 ;
54 [label="Family <= 2.5\nmse = 0.086\nsamples = 21\nvalue = 0.095"] ;
52 -> 54 ;
55 [label="mse = 0.173\nsamples = 9\nvalue = 0.222"] ;
54 -> 55 ;
56 [label="mse = 0.0\nsamples = 12\nvalue = 0.0"] ;
54 -> 56 ;
57 [label="CCAvg <= 3.2\nmse = 0.222\nsamples = 3\nvalue = 0.333"] ;
49 -> 57 ;
58 [label="mse = 0.0\nsamples = 1\nvalue = 1.0"] ;
57 -> 58 ;
59 [label="mse = 0.0\nsamples = 2\nvalue = 0.0"] ;
57 -> 59 ;
60 [label="mse = 0.0\nsamples = 20\nvalue = 0.0"] ;
48 -> 60 ;
61 [label="Mortgage <= 249.5\nmse = 0.222\nsamples = 3\nvalue = 0.667"] ;
47 -> 61 ;
62 [label="mse = 0.0\nsamples = 2\nvalue = 1.0"] ;
61 -> 62 ;
63 [label="mse = 0.0\nsamples = 1\nvalue = 0.0"] ;
61 -> 63 ;
64 [label="CCAvg <= 3.05\nmse = 0.218\nsamples = 25\nvalue = 0.32"] ;
46 -> 64 ;
65 [label="mse = 0.0\nsamples = 6\nvalue = 0.0"] ;
64 -> 65 ;
66 [label="Education <= 2.5\nmse = 0.244\nsamples = 19\nvalue = 0.421"] ;
64 -> 66 ;
67 [label="Income <= 83.5\nmse = 0.204\nsamples = 14\nvalue = 0.286"] ;
66 -> 67 ;
68 [label="Family <= 3.0\nmse = 0.188\nsamples = 4\nvalue = 0.75"] ;
67 -> 68 ;
69 [label="mse = 0.0\nsamples = 2\nvalue = 1.0"] ;
68 -> 69 ;
70 [label="CCAvg <= 3.25\nmse = 0.25\nsamples = 2\nvalue = 0.5"] ;
68 -> 70 ;
71 [label="mse = 0.0\nsamples = 1\nvalue = 1.0"] ;
70 -> 71 ;
72 [label="mse = 0.0\nsamples = 1\nvalue = 0.0"] ;
70 -> 72 ;
73 [label="CCAvg <= 3.5\nmse = 0.09\nsamples = 10\nvalue = 0.1"] ;
67 -> 73 ;
74 [label="mse = 0.0\nsamples = 8\nvalue = 0.0"] ;
73 -> 74 ;
75 [label="Income <= 87.0\nmse = 0.25\nsamples = 2\nvalue = 0.5"] ;
73 -> 75 ;
76 [label="mse = 0.0\nsamples = 1\nvalue = 0.0"] ;
75 -> 76 ;
77 [label="mse = 0.0\nsamples = 1\nvalue = 1.0"] ;
75 -> 77 ;
78 [label="Mortgage <= 94.0\nmse = 0.16\nsamples = 5\nvalue = 0.8"] ;
66 -> 78 ;
79 [label="mse = 0.0\nsamples = 4\nvalue = 1.0"] ;
78 -> 79 ;
80 [label="mse = 0.0\nsamples = 1\nvalue = 0.0"] ;
78 -> 80 ;
81 [label="CCAvg <= 3.95\nmse = 0.034\nsamples = 86\nvalue = 0.035"] ;
45 -> 81 ;
82 [label="CCAvg <= 3.85\nmse = 0.075\nsamples = 37\nvalue = 0.081"] ;
81 -> 82 ;
83 [label="Income <= 81.5\nmse = 0.052\nsamples = 36\nvalue = 0.056"] ;
82 -> 83 ;
84 [label="mse = 0.0\nsamples = 21\nvalue = 0.0"] ;
83 -> 84 ;
85 [label="Income <= 83.5\nmse = 0.116\nsamples = 15\nvalue = 0.133"] ;
83 -> 85 ;
86 [label="Education <= 2.5\nmse = 0.222\nsamples = 6\nvalue = 0.333"] ;
85 -> 86 ;
87 [label="Family <= 3.5\nmse = 0.222\nsamples = 3\nvalue = 0.667"] ;
86 -> 87 ;
88 [label="mse = 0.0\nsamples = 2\nvalue = 1.0"] ;
87 -> 88 ;
89 [label="mse = 0.0\nsamples = 1\nvalue = 0.0"] ;
87 -> 89 ;
90 [label="mse = 0.0\nsamples = 3\nvalue = 0.0"] ;
86 -> 90 ;
91 [label="mse = 0.0\nsamples = 9\nvalue = 0.0"] ;
85 -> 91 ;
92 [label="mse = 0.0\nsamples = 1\nvalue = 1.0"] ;
82 -> 92 ;
93 [label="mse = 0.0\nsamples = 49\nvalue = 0.0"] ;
81 -> 93 ;
94 [label="Education <= 1.5\nmse = 0.227\nsamples = 98\nvalue = 0.347"] ;
44 -> 94 ;
95 [label="Family <= 3.5\nmse = 0.081\nsamples = 56\nvalue = 0.089"] ;
94 -> 95 ;
96 [label="CCAvg <= 4.5\nmse = 0.053\nsamples = 53\nvalue = 0.057"] ;
95 -> 96 ;
97 [label="Income <= 109.5\nmse = 0.09\nsamples = 30\nvalue = 0.1"] ;
96 -> 97 ;
98 [label="Income <= 108.5\nmse = 0.145\nsamples = 17\nvalue = 0.176"] ;
97 -> 98 ;
99 [label="CCAvg <= 4.35\nmse = 0.109\nsamples = 16\nvalue = 0.125"] ;
98 -> 99 ;
100 [label="Family <= 1.5\nmse = 0.071\nsamples = 13\nvalue = 0.077"] ;
99 -> 100 ;
101 [label="mse = 0.0\nsamples = 8\nvalue = 0.0"] ;
100 -> 101 ;
102 [label="CCAvg <= 3.5\nmse = 0.16\nsamples = 5\nvalue = 0.2"] ;
100 -> 102 ;
103 [label="mse = 0.0\nsamples = 4\nvalue = 0.0"] ;
102 -> 103 ;
104 [label="mse = 0.0\nsamples = 1\nvalue = 1.0"] ;
102 -> 104 ;
105 [label="Family <= 2.0\nmse = 0.222\nsamples = 3\nvalue = 0.333"] ;
99 -> 105 ;
106 [label="mse = 0.0\nsamples = 1\nvalue = 1.0"] ;
105 -> 106 ;
107 [label="mse = 0.0\nsamples = 2\nvalue = 0.0"] ;
105 -> 107 ;
108 [label="mse = 0.0\nsamples = 1\nvalue = 1.0"] ;
98 -> 108 ;
109 [label="mse = 0.0\nsamples = 13\nvalue = 0.0"] ;
97 -> 109 ;
110 [label="mse = 0.0\nsamples = 23\nvalue = 0.0"] ;
96 -> 110 ;
111 [label="CCAvg <= 4.15\nmse = 0.222\nsamples = 3\nvalue = 0.667"] ;
95 -> 111 ;
112 [label="mse = 0.0\nsamples = 2\nvalue = 1.0"] ;
111 -> 112 ;
113 [label="mse = 0.0\nsamples = 1\nvalue = 0.0"] ;
111 -> 113 ;
114 [label="Family <= 2.5\nmse = 0.214\nsamples = 42\nvalue = 0.69"] ;
94 -> 114 ;
115 [label="Education <= 2.5\nmse = 0.248\nsamples = 22\nvalue = 0.545"] ;
114 -> 115 ;
116 [label="mse = 0.0\nsamples = 5\nvalue = 1.0"] ;
115 -> 116 ;
117 [label="CCAvg <= 4.3\nmse = 0.242\nsamples = 17\nvalue = 0.412"] ;
115 -> 117 ;
118 [label="Income <= 100.0\nmse = 0.24\nsamples = 10\nvalue = 0.6"] ;
117 -> 118 ;
119 [label="Mortgage <= 73.0\nmse = 0.24\nsamples = 5\nvalue = 0.4"] ;
118 -> 119 ;
120 [label="mse = 0.0\nsamples = 2\nvalue = 0.0"] ;
119 -> 120 ;
121 [label="Mortgage <= 171.5\nmse = 0.222\nsamples = 3\nvalue = 0.667"] ;
119 -> 121 ;
122 [label="mse = 0.0\nsamples = 2\nvalue = 1.0"] ;
121 -> 122 ;
123 [label="mse = 0.0\nsamples = 1\nvalue = 0.0"] ;
121 -> 123 ;
124 [label="CCAvg <= 3.7\nmse = 0.16\nsamples = 5\nvalue = 0.8"] ;
118 -> 124 ;
125 [label="mse = 0.0\nsamples = 2\nvalue = 1.0"] ;
124 -> 125 ;
126 [label="CCAvg <= 3.85\nmse = 0.222\nsamples = 3\nvalue = 0.667"] ;
124 -> 126 ;
127 [label="mse = 0.0\nsamples = 1\nvalue = 0.0"] ;
126 -> 127 ;
128 [label="mse = 0.0\nsamples = 2\nvalue = 1.0"] ;
126 -> 128 ;
129 [label="CCAvg <= 4.65\nmse = 0.122\nsamples = 7\nvalue = 0.143"] ;
117 -> 129 ;
130 [label="mse = 0.0\nsamples = 6\nvalue = 0.0"] ;
129 -> 130 ;
131 [label="mse = 0.0\nsamples = 1\nvalue = 1.0"] ;
129 -> 131 ;
132 [label="CCAvg <= 3.45\nmse = 0.128\nsamples = 20\nvalue = 0.85"] ;
114 -> 132 ;
133 [label="CCAvg <= 3.2\nmse = 0.24\nsamples = 5\nvalue = 0.4"] ;
132 -> 133 ;
134 [label="mse = 0.0\nsamples = 1\nvalue = 1.0"] ;
133 -> 134 ;
135 [label="Education <= 2.5\nmse = 0.188\nsamples = 4\nvalue = 0.25"] ;
133 -> 135 ;
136 [label="mse = 0.0\nsamples = 3\nvalue = 0.0"] ;
135 -> 136 ;
137 [label="mse = 0.0\nsamples = 1\nvalue = 1.0"] ;
135 -> 137 ;
138 [label="mse = 0.0\nsamples = 15\nvalue = 1.0"] ;
132 -> 138 ;
139 [label="CCAvg <= 3.85\nmse = 0.178\nsamples = 26\nvalue = 0.769"] ;
43 -> 139 ;
140 [label="mse = 0.0\nsamples = 11\nvalue = 1.0"] ;
139 -> 140 ;
141 [label="Education <= 2.5\nmse = 0.24\nsamples = 15\nvalue = 0.6"] ;
139 -> 141 ;
142 [label="Education <= 1.5\nmse = 0.198\nsamples = 11\nvalue = 0.727"] ;
141 -> 142 ;
143 [label="Income <= 106.0\nmse = 0.234\nsamples = 8\nvalue = 0.625"] ;
142 -> 143 ;
144 [label="CCAvg <= 4.25\nmse = 0.204\nsamples = 7\nvalue = 0.714"] ;
143 -> 144 ;
145 [label="mse = 0.0\nsamples = 4\nvalue = 1.0"] ;
144 -> 145 ;
146 [label="Mortgage <= 250.5\nmse = 0.222\nsamples = 3\nvalue = 0.333"] ;
144 -> 146 ;
147 [label="mse = 0.0\nsamples = 2\nvalue = 0.0"] ;
146 -> 147 ;
148 [label="mse = 0.0\nsamples = 1\nvalue = 1.0"] ;
146 -> 148 ;
149 [label="mse = 0.0\nsamples = 1\nvalue = 0.0"] ;
143 -> 149 ;
150 [label="mse = 0.0\nsamples = 3\nvalue = 1.0"] ;
142 -> 150 ;
151 [label="Mortgage <= 195.5\nmse = 0.188\nsamples = 4\nvalue = 0.25"] ;
141 -> 151 ;
152 [label="mse = 0.0\nsamples = 3\nvalue = 0.0"] ;
151 -> 152 ;
153 [label="mse = 0.0\nsamples = 1\nvalue = 1.0"] ;
151 -> 153 ;
154 [label="Education <= 1.5\nmse = 0.241\nsamples = 979\nvalue = 0.404"] ;
0 -> 154 [labeldistance=2.5, labelangle=-45, headlabel="False"] ;
155 [label="Family <= 2.5\nmse = 0.097\nsamples = 635\nvalue = 0.109"] ;
154 -> 155 ;
156 [label="mse = 0.0\nsamples = 566\nvalue = 0.0"] ;
155 -> 156 ;
157 [label="mse = 0.0\nsamples = 69\nvalue = 1.0"] ;
155 -> 157 ;
158 [label="Income <= 116.5\nmse = 0.047\nsamples = 344\nvalue = 0.951"] ;
154 -> 158 ;
159 [label="CCAvg <= 2.15\nmse = 0.246\nsamples = 30\nvalue = 0.433"] ;
158 -> 159 ;
160 [label="CCAvg <= 0.55\nmse = 0.13\nsamples = 13\nvalue = 0.154"] ;
159 -> 160 ;
161 [label="mse = 0.0\nsamples = 1\nvalue = 1.0"] ;
160 -> 161 ;
162 [label="Income <= 114.5\nmse = 0.076\nsamples = 12\nvalue = 0.083"] ;
160 -> 162 ;
163 [label="mse = 0.0\nsamples = 7\nvalue = 0.0"] ;
162 -> 163 ;
164 [label="Education <= 2.5\nmse = 0.16\nsamples = 5\nvalue = 0.2"] ;
162 -> 164 ;
165 [label="mse = 0.0\nsamples = 2\nvalue = 0.0"] ;
164 -> 165 ;
166 [label="CCAvg <= 1.1\nmse = 0.222\nsamples = 3\nvalue = 0.333"] ;
164 -> 166 ;
167 [label="mse = 0.0\nsamples = 1\nvalue = 0.0"] ;
166 -> 167 ;
168 [label="Family <= 1.5\nmse = 0.25\nsamples = 2\nvalue = 0.5"] ;
166 -> 168 ;
169 [label="mse = 0.0\nsamples = 1\nvalue = 1.0"] ;
168 -> 169 ;
170 [label="mse = 0.0\nsamples = 1\nvalue = 0.0"] ;
168 -> 170 ;
171 [label="CCAvg <= 4.0\nmse = 0.228\nsamples = 17\nvalue = 0.647"] ;
159 -> 171 ;
172 [label="CCAvg <= 3.35\nmse = 0.249\nsamples = 13\nvalue = 0.538"] ;
171 -> 172 ;
173 [label="Mortgage <= 141.5\nmse = 0.222\nsamples = 9\nvalue = 0.667"] ;
172 -> 173 ;
174 [label="CCAvg <= 2.45\nmse = 0.188\nsamples = 8\nvalue = 0.75"] ;
173 -> 174 ;
175 [label="Income <= 114.5\nmse = 0.25\nsamples = 4\nvalue = 0.5"] ;
174 -> 175 ;
176 [label="Family <= 1.5\nmse = 0.222\nsamples = 3\nvalue = 0.333"] ;
175 -> 176 ;
177 [label="mse = 0.0\nsamples = 1\nvalue = 1.0"] ;
176 -> 177 ;
178 [label="mse = 0.0\nsamples = 2\nvalue = 0.0"] ;
176 -> 178 ;
179 [label="mse = 0.0\nsamples = 1\nvalue = 1.0"] ;
175 -> 179 ;
180 [label="mse = 0.0\nsamples = 4\nvalue = 1.0"] ;
174 -> 180 ;
181 [label="mse = 0.0\nsamples = 1\nvalue = 0.0"] ;
173 -> 181 ;
182 [label="CCAvg <= 3.6\nmse = 0.188\nsamples = 4\nvalue = 0.25"] ;
172 -> 182 ;
183 [label="mse = 0.0\nsamples = 2\nvalue = 0.0"] ;
182 -> 183 ;
184 [label="Education <= 2.5\nmse = 0.25\nsamples = 2\nvalue = 0.5"] ;
182 -> 184 ;
185 [label="mse = 0.0\nsamples = 1\nvalue = 1.0"] ;
184 -> 185 ;
186 [label="mse = 0.0\nsamples = 1\nvalue = 0.0"] ;
184 -> 186 ;
187 [label="mse = 0.0\nsamples = 4\nvalue = 1.0"] ;
171 -> 187 ;
188 [label="mse = 0.0\nsamples = 314\nvalue = 1.0"] ;
158 -> 188 ;
}